Language model created by QuickLM on Sat Jun  1 19:01:34 EDT 2024
Copyright (c) 1996-2010 Carnegie Mellon University and Alexander I. Rudnicky

The model is in standard ARPA format, designed by Doug Paul while he was at MITRE.

The code that was used to produce this language model is available in Open Source.
Please visit http://www.speech.cs.cmu.edu/tools/ for more information

The (fixed) discount mass is 0.5. The backoffs are computed using the ratio method.
This model based on a corpus of 14 sentences and 25 words

\data\
ngram 1=25
ngram 2=37
ngram 3=25

\1-grams:
-0.8792 </s> -0.3010
-0.8792 <s> -0.2395
-1.7243 ABDULLAH\ -0.2395
-1.7243 APP\ -0.2395
-2.0253 BYE -0.2928
-2.0253 CLOSE -0.2928
-2.0253 FORECAST\ -0.2395
-2.0253 FOR\ -0.2395
-2.0253 HELVETICA;} -0.2395
-2.0253 HEY -0.2928
-2.0253 MUSIC\ -0.2395
-2.0253 OPEN -0.2928
-2.0253 PLAY -0.2969
-2.0253 SEARCH -0.2969
-2.0253 TRANSLATE -0.2969
-2.0253 WEATHER -0.2969
-2.0253 \CF0 -0.2969
-2.0253 \COCOATEXTSCALING0\COCOAPLATFORM0{\FONTTBL\F0\FSWISS\FCHARSET0 -0.2969
-2.0253 \F0\FS24 -0.2969
-2.0253 \PAPERW11900\PAPERH16840\MARGL1440\MARGR1440\VIEWW25400\VIEWH16000\VIEWKIND0 -0.2395
-2.0253 \PARD\TX720\TX1440\TX2160\TX2880\TX3600\TX4320\TX5040\TX5760\TX6480\TX7200\TX7920\TX8640\PARDIRNATURAL\PARTIGHTENFACTOR0 -0.2395
-2.0253 {\*\EXPANDEDCOLORTBL;;} -0.2395
-2.0253 {\COLORTBL;\RED255\GREEN255\BLUE255;} -0.2395
-2.0253 {\RTF1\ANSI\ANSICPG1252\COCOARTF2709 -0.2395
-2.0253 } -0.2395

\2-grams:
-1.4472 <s> BYE 0.0000
-1.4472 <s> CLOSE 0.0000
-1.4472 <s> OPEN 0.0000
-1.4472 <s> PLAY 0.0000
-1.4472 <s> SEARCH 0.0000
-1.4472 <s> TRANSLATE 0.0000
-1.4472 <s> WEATHER 0.0000
-1.4472 <s> \COCOATEXTSCALING0\COCOAPLATFORM0{\FONTTBL\F0\FSWISS\FCHARSET0 0.0000
-1.4472 <s> \F0\FS24 0.0000
-1.4472 <s> \PAPERW11900\PAPERH16840\MARGL1440\MARGR1440\VIEWW25400\VIEWH16000\VIEWKIND0 0.0000
-1.4472 <s> \PARD\TX720\TX1440\TX2160\TX2880\TX3600\TX4320\TX5040\TX5760\TX6480\TX7200\TX7920\TX8640\PARDIRNATURAL\PARTIGHTENFACTOR0 0.0000
-1.4472 <s> {\*\EXPANDEDCOLORTBL;;} 0.0000
-1.4472 <s> {\COLORTBL;\RED255\GREEN255\BLUE255;} 0.0000
-1.4472 <s> {\RTF1\ANSI\ANSICPG1252\COCOARTF2709 0.0000
-0.3010 ABDULLAH\ </s> -0.3010
-0.3010 APP\ </s> -0.3010
-0.3010 BYE ABDULLAH\ 0.0000
-0.3010 CLOSE APP\ 0.0000
-0.3010 FORECAST\ </s> -0.3010
-0.3010 FOR\ </s> -0.3010
-0.3010 HELVETICA;} </s> -0.3010
-0.3010 HEY ABDULLAH\ 0.0000
-0.3010 MUSIC\ </s> -0.3010
-0.3010 OPEN APP\ 0.0000
-0.3010 PLAY MUSIC\ 0.0000
-0.3010 SEARCH FOR\ 0.0000
-0.3010 TRANSLATE } 0.0000
-0.3010 WEATHER FORECAST\ 0.0000
-0.3010 \CF0 HEY 0.0000
-0.3010 \COCOATEXTSCALING0\COCOAPLATFORM0{\FONTTBL\F0\FSWISS\FCHARSET0 HELVETICA;} 0.0000
-0.3010 \F0\FS24 \CF0 0.0000
-0.3010 \PAPERW11900\PAPERH16840\MARGL1440\MARGR1440\VIEWW25400\VIEWH16000\VIEWKIND0 </s> -0.3010
-0.3010 \PARD\TX720\TX1440\TX2160\TX2880\TX3600\TX4320\TX5040\TX5760\TX6480\TX7200\TX7920\TX8640\PARDIRNATURAL\PARTIGHTENFACTOR0 </s> -0.3010
-0.3010 {\*\EXPANDEDCOLORTBL;;} </s> -0.3010
-0.3010 {\COLORTBL;\RED255\GREEN255\BLUE255;} </s> -0.3010
-0.3010 {\RTF1\ANSI\ANSICPG1252\COCOARTF2709 </s> -0.3010
-0.3010 } </s> -0.3010

\3-grams:
-0.3010 <s> BYE ABDULLAH\
-0.3010 <s> CLOSE APP\
-0.3010 <s> OPEN APP\
-0.3010 <s> PLAY MUSIC\
-0.3010 <s> SEARCH FOR\
-0.3010 <s> TRANSLATE }
-0.3010 <s> WEATHER FORECAST\
-0.3010 <s> \COCOATEXTSCALING0\COCOAPLATFORM0{\FONTTBL\F0\FSWISS\FCHARSET0 HELVETICA;}
-0.3010 <s> \F0\FS24 \CF0
-0.3010 <s> \PAPERW11900\PAPERH16840\MARGL1440\MARGR1440\VIEWW25400\VIEWH16000\VIEWKIND0 </s>
-0.3010 <s> \PARD\TX720\TX1440\TX2160\TX2880\TX3600\TX4320\TX5040\TX5760\TX6480\TX7200\TX7920\TX8640\PARDIRNATURAL\PARTIGHTENFACTOR0 </s>
-0.3010 <s> {\*\EXPANDEDCOLORTBL;;} </s>
-0.3010 <s> {\COLORTBL;\RED255\GREEN255\BLUE255;} </s>
-0.3010 <s> {\RTF1\ANSI\ANSICPG1252\COCOARTF2709 </s>
-0.3010 BYE ABDULLAH\ </s>
-0.3010 CLOSE APP\ </s>
-0.3010 HEY ABDULLAH\ </s>
-0.3010 OPEN APP\ </s>
-0.3010 PLAY MUSIC\ </s>
-0.3010 SEARCH FOR\ </s>
-0.3010 TRANSLATE } </s>
-0.3010 WEATHER FORECAST\ </s>
-0.3010 \CF0 HEY ABDULLAH\
-0.3010 \COCOATEXTSCALING0\COCOAPLATFORM0{\FONTTBL\F0\FSWISS\FCHARSET0 HELVETICA;} </s>
-0.3010 \F0\FS24 \CF0 HEY

\end\
