Language model created by QuickLM on Sat Jun  1 10:36:47 EDT 2024
Copyright (c) 1996-2010 Carnegie Mellon University and Alexander I. Rudnicky

The model is in standard ARPA format, designed by Doug Paul while he was at MITRE.

The code that was used to produce this language model is available in Open Source.
Please visit http://www.speech.cs.cmu.edu/tools/ for more information

The (fixed) discount mass is 0.5. The backoffs are computed using the ratio method.
This model based on a corpus of 90 sentences and 95 words

\data\
ngram 1=95
ngram 2=183
ngram 3=93

\1-grams:
-0.7830 </s> -0.3010
-0.7830 <s> -0.2228
-2.7372 ABDULLAH\ -0.2228
-2.7372 APPLICATION\ -0.2228
-2.7372 APP\ -0.2228
-2.7372 AZAM\ -0.2228
-2.7372 A\ -0.2228
-2.7372 BABAR\ -0.2228
-2.7372 BEGIN\ -0.2228
-2.7372 BELIEVER\ -0.2228
-2.7372 BYE\ -0.2228
-2.7372 CAN\ -0.2228
-2.7372 CLOSE\ -0.2228
-2.7372 DESPACITO\ -0.2228
-2.7372 DOWN\ -0.2228
-2.7372 DO\ -0.2228
-2.7372 EXIT\ -0.2228
-2.7372 FAREWELL\ -0.2228
-2.7372 FIND\ -0.2228
-2.7372 FORECAST\ -0.2228
-2.7372 FOR\ -0.2228
-2.7372 FUNNY\ -0.2228
-2.7372 GIVE\ -0.2228
-2.7372 GOODBYE\ -0.2228
-2.7372 GOOGLE\ -0.2228
-2.7372 HELLO\ -0.2228
-2.7372 HELVETICA;} -0.2228
-2.7372 HEY\ -0.2228
-2.7372 HI\ -0.2228
-2.7372 HO\ -0.2228
-2.7372 IMAGINE\ -0.2228
-2.7372 INFORMATION\ -0.2228
-2.7372 INTERNET\ -0.2228
-2.7372 ISHQ\ -0.2228
-2.7372 JOKE\ -0.2228
-2.7372 LATER\ -0.2228
-2.7372 LAUGH\ -0.2228
-2.7372 LAUNCH\ -0.2228
-2.7372 LIKE\ -0.2228
-2.7372 LOOK\ -0.2228
-2.7372 MAKE\ -0.2228
-2.7372 MERE\ -0.2228
-2.7372 ME\ -0.2228
-2.7372 MOVIE\ -0.2228
-2.7372 MURSHID\ -0.2228
-2.7372 MUSIC\ -0.2228
-2.7372 NEARBY\ -0.2228
-2.7372 NEWS\ -0.2228
-2.7372 NOW\ -0.2228
-2.7372 ON\ -0.2228
-2.7372 OPEN\ -0.2228
-2.7372 PAKISTAN\ -0.2228
-2.7372 PAS\ -0.2228
-2.7372 PLAY\ -0.2228
-2.7372 PLEASE\ -0.2228
-2.7372 PROVIDE\ -0.2228
-2.7372 QUIT\ -0.2228
-2.7372 REPORT\ -0.2228
-2.7372 RESTAURANTS\ -0.2228
-2.7372 REVIEWS} -0.2228
-2.7372 RUN\ -0.2228
-2.7372 SAY\ -0.2228
-2.7372 SEARCH\ -0.2228
-2.7372 SEE\ -0.2228
-2.7372 SHUT\ -0.2228
-2.7372 SOMETHING\ -0.2228
-2.7372 SONG\ -0.2228
-2.7372 SPORTS\ -0.2228
-2.7372 START\ -0.2228
-2.7372 STOP\ -0.2228
-2.7372 TELL\ -0.2228
-2.7372 THERE\ -0.2228
-2.7372 THE\ -0.2228
-2.7372 THIS\ -0.2228
-2.7372 THUNDER\ -0.2228
-2.7372 TRANSLATE\ -0.2228
-2.7372 TRANSLATION\ -0.2228
-2.7372 TUM\ -0.2228
-2.7372 TUNES\ -0.2228
-2.7372 UPDATES\ -0.2228
-2.7372 UPDATE\ -0.2228
-2.7372 UP\ -0.2228
-2.7372 WEATHER\ -0.2228
-2.7372 WEB\ -0.2228
-2.7372 WHAT'S\ -0.2228
-2.7372 YOU\ -0.2228
-2.7372 YO\ -0.2228
-2.7372 \CF0 -0.3002
-2.7372 \COCOATEXTSCALING0\COCOAPLATFORM0{\FONTTBL\F0\FSWISS\FCHARSET0 -0.3002
-2.7372 \F0\FS24 -0.3002
-2.7372 \PAPERW11900\PAPERH16840\MARGL1440\MARGR1440\VIEWW25400\VIEWH16000\VIEWKIND0 -0.2228
-2.7372 \PARD\TX720\TX1440\TX2160\TX2880\TX3600\TX4320\TX5040\TX5760\TX6480\TX7200\TX7920\TX8640\PARDIRNATURAL\PARTIGHTENFACTOR0 -0.2228
-2.7372 {\*\EXPANDEDCOLORTBL;;} -0.2228
-2.7372 {\COLORTBL;\RED255\GREEN255\BLUE255;} -0.2228
-2.7372 {\RTF1\ANSI\ANSICPG1252\COCOARTF2709 -0.2228

\2-grams:
-2.2553 <s> ABDULLAH\ 0.0000
-2.2553 <s> APPLICATION\ 0.0000
-2.2553 <s> APP\ 0.0000
-2.2553 <s> AZAM\ 0.0000
-2.2553 <s> A\ 0.0000
-2.2553 <s> BABAR\ 0.0000
-2.2553 <s> BEGIN\ 0.0000
-2.2553 <s> BELIEVER\ 0.0000
-2.2553 <s> BYE\ 0.0000
-2.2553 <s> CAN\ 0.0000
-2.2553 <s> CLOSE\ 0.0000
-2.2553 <s> DESPACITO\ 0.0000
-2.2553 <s> DOWN\ 0.0000
-2.2553 <s> DO\ 0.0000
-2.2553 <s> EXIT\ 0.0000
-2.2553 <s> FAREWELL\ 0.0000
-2.2553 <s> FIND\ 0.0000
-2.2553 <s> FORECAST\ 0.0000
-2.2553 <s> FOR\ 0.0000
-2.2553 <s> FUNNY\ 0.0000
-2.2553 <s> GIVE\ 0.0000
-2.2553 <s> GOODBYE\ 0.0000
-2.2553 <s> GOOGLE\ 0.0000
-2.2553 <s> HELLO\ 0.0000
-2.2553 <s> HI\ 0.0000
-2.2553 <s> HO\ 0.0000
-2.2553 <s> IMAGINE\ 0.0000
-2.2553 <s> INFORMATION\ 0.0000
-2.2553 <s> INTERNET\ 0.0000
-2.2553 <s> ISHQ\ 0.0000
-2.2553 <s> JOKE\ 0.0000
-2.2553 <s> LATER\ 0.0000
-2.2553 <s> LAUGH\ 0.0000
-2.2553 <s> LAUNCH\ 0.0000
-2.2553 <s> LIKE\ 0.0000
-2.2553 <s> LOOK\ 0.0000
-2.2553 <s> MAKE\ 0.0000
-2.2553 <s> MERE\ 0.0000
-2.2553 <s> ME\ 0.0000
-2.2553 <s> MOVIE\ 0.0000
-2.2553 <s> MURSHID\ 0.0000
-2.2553 <s> MUSIC\ 0.0000
-2.2553 <s> NEARBY\ 0.0000
-2.2553 <s> NEWS\ 0.0000
-2.2553 <s> NOW\ 0.0000
-2.2553 <s> ON\ 0.0000
-2.2553 <s> OPEN\ 0.0000
-2.2553 <s> PAKISTAN\ 0.0000
-2.2553 <s> PAS\ 0.0000
-2.2553 <s> PLAY\ 0.0000
-2.2553 <s> PLEASE\ 0.0000
-2.2553 <s> PROVIDE\ 0.0000
-2.2553 <s> QUIT\ 0.0000
-2.2553 <s> REPORT\ 0.0000
-2.2553 <s> RESTAURANTS\ 0.0000
-2.2553 <s> REVIEWS} 0.0000
-2.2553 <s> RUN\ 0.0000
-2.2553 <s> SAY\ 0.0000
-2.2553 <s> SEARCH\ 0.0000
-2.2553 <s> SEE\ 0.0000
-2.2553 <s> SHUT\ 0.0000
-2.2553 <s> SOMETHING\ 0.0000
-2.2553 <s> SONG\ 0.0000
-2.2553 <s> SPORTS\ 0.0000
-2.2553 <s> START\ 0.0000
-2.2553 <s> STOP\ 0.0000
-2.2553 <s> TELL\ 0.0000
-2.2553 <s> THERE\ 0.0000
-2.2553 <s> THE\ 0.0000
-2.2553 <s> THIS\ 0.0000
-2.2553 <s> THUNDER\ 0.0000
-2.2553 <s> TRANSLATE\ 0.0000
-2.2553 <s> TRANSLATION\ 0.0000
-2.2553 <s> TUM\ 0.0000
-2.2553 <s> TUNES\ 0.0000
-2.2553 <s> UPDATES\ 0.0000
-2.2553 <s> UPDATE\ 0.0000
-2.2553 <s> UP\ 0.0000
-2.2553 <s> WEATHER\ 0.0000
-2.2553 <s> WEB\ 0.0000
-2.2553 <s> WHAT'S\ 0.0000
-2.2553 <s> YOU\ 0.0000
-2.2553 <s> YO\ 0.0000
-2.2553 <s> \COCOATEXTSCALING0\COCOAPLATFORM0{\FONTTBL\F0\FSWISS\FCHARSET0 0.0000
-2.2553 <s> \F0\FS24 0.0000
-2.2553 <s> \PAPERW11900\PAPERH16840\MARGL1440\MARGR1440\VIEWW25400\VIEWH16000\VIEWKIND0 0.0000
-2.2553 <s> \PARD\TX720\TX1440\TX2160\TX2880\TX3600\TX4320\TX5040\TX5760\TX6480\TX7200\TX7920\TX8640\PARDIRNATURAL\PARTIGHTENFACTOR0 0.0000
-2.2553 <s> {\*\EXPANDEDCOLORTBL;;} 0.0000
-2.2553 <s> {\COLORTBL;\RED255\GREEN255\BLUE255;} 0.0000
-2.2553 <s> {\RTF1\ANSI\ANSICPG1252\COCOARTF2709 0.0000
-0.3010 ABDULLAH\ </s> -0.3010
-0.3010 APPLICATION\ </s> -0.3010
-0.3010 APP\ </s> -0.3010
-0.3010 AZAM\ </s> -0.3010
-0.3010 A\ </s> -0.3010
-0.3010 BABAR\ </s> -0.3010
-0.3010 BEGIN\ </s> -0.3010
-0.3010 BELIEVER\ </s> -0.3010
-0.3010 BYE\ </s> -0.3010
-0.3010 CAN\ </s> -0.3010
-0.3010 CLOSE\ </s> -0.3010
-0.3010 DESPACITO\ </s> -0.3010
-0.3010 DOWN\ </s> -0.3010
-0.3010 DO\ </s> -0.3010
-0.3010 EXIT\ </s> -0.3010
-0.3010 FAREWELL\ </s> -0.3010
-0.3010 FIND\ </s> -0.3010
-0.3010 FORECAST\ </s> -0.3010
-0.3010 FOR\ </s> -0.3010
-0.3010 FUNNY\ </s> -0.3010
-0.3010 GIVE\ </s> -0.3010
-0.3010 GOODBYE\ </s> -0.3010
-0.3010 GOOGLE\ </s> -0.3010
-0.3010 HELLO\ </s> -0.3010
-0.3010 HELVETICA;} </s> -0.3010
-0.3010 HEY\ </s> -0.3010
-0.3010 HI\ </s> -0.3010
-0.3010 HO\ </s> -0.3010
-0.3010 IMAGINE\ </s> -0.3010
-0.3010 INFORMATION\ </s> -0.3010
-0.3010 INTERNET\ </s> -0.3010
-0.3010 ISHQ\ </s> -0.3010
-0.3010 JOKE\ </s> -0.3010
-0.3010 LATER\ </s> -0.3010
-0.3010 LAUGH\ </s> -0.3010
-0.3010 LAUNCH\ </s> -0.3010
-0.3010 LIKE\ </s> -0.3010
-0.3010 LOOK\ </s> -0.3010
-0.3010 MAKE\ </s> -0.3010
-0.3010 MERE\ </s> -0.3010
-0.3010 ME\ </s> -0.3010
-0.3010 MOVIE\ </s> -0.3010
-0.3010 MURSHID\ </s> -0.3010
-0.3010 MUSIC\ </s> -0.3010
-0.3010 NEARBY\ </s> -0.3010
-0.3010 NEWS\ </s> -0.3010
-0.3010 NOW\ </s> -0.3010
-0.3010 ON\ </s> -0.3010
-0.3010 OPEN\ </s> -0.3010
-0.3010 PAKISTAN\ </s> -0.3010
-0.3010 PAS\ </s> -0.3010
-0.3010 PLAY\ </s> -0.3010
-0.3010 PLEASE\ </s> -0.3010
-0.3010 PROVIDE\ </s> -0.3010
-0.3010 QUIT\ </s> -0.3010
-0.3010 REPORT\ </s> -0.3010
-0.3010 RESTAURANTS\ </s> -0.3010
-0.3010 REVIEWS} </s> -0.3010
-0.3010 RUN\ </s> -0.3010
-0.3010 SAY\ </s> -0.3010
-0.3010 SEARCH\ </s> -0.3010
-0.3010 SEE\ </s> -0.3010
-0.3010 SHUT\ </s> -0.3010
-0.3010 SOMETHING\ </s> -0.3010
-0.3010 SONG\ </s> -0.3010
-0.3010 SPORTS\ </s> -0.3010
-0.3010 START\ </s> -0.3010
-0.3010 STOP\ </s> -0.3010
-0.3010 TELL\ </s> -0.3010
-0.3010 THERE\ </s> -0.3010
-0.3010 THE\ </s> -0.3010
-0.3010 THIS\ </s> -0.3010
-0.3010 THUNDER\ </s> -0.3010
-0.3010 TRANSLATE\ </s> -0.3010
-0.3010 TRANSLATION\ </s> -0.3010
-0.3010 TUM\ </s> -0.3010
-0.3010 TUNES\ </s> -0.3010
-0.3010 UPDATES\ </s> -0.3010
-0.3010 UPDATE\ </s> -0.3010
-0.3010 UP\ </s> -0.3010
-0.3010 WEATHER\ </s> -0.3010
-0.3010 WEB\ </s> -0.3010
-0.3010 WHAT'S\ </s> -0.3010
-0.3010 YOU\ </s> -0.3010
-0.3010 YO\ </s> -0.3010
-0.3010 \CF0 HEY\ 0.0000
-0.3010 \COCOATEXTSCALING0\COCOAPLATFORM0{\FONTTBL\F0\FSWISS\FCHARSET0 HELVETICA;} 0.0000
-0.3010 \F0\FS24 \CF0 0.0000
-0.3010 \PAPERW11900\PAPERH16840\MARGL1440\MARGR1440\VIEWW25400\VIEWH16000\VIEWKIND0 </s> -0.3010
-0.3010 \PARD\TX720\TX1440\TX2160\TX2880\TX3600\TX4320\TX5040\TX5760\TX6480\TX7200\TX7920\TX8640\PARDIRNATURAL\PARTIGHTENFACTOR0 </s> -0.3010
-0.3010 {\*\EXPANDEDCOLORTBL;;} </s> -0.3010
-0.3010 {\COLORTBL;\RED255\GREEN255\BLUE255;} </s> -0.3010
-0.3010 {\RTF1\ANSI\ANSICPG1252\COCOARTF2709 </s> -0.3010

\3-grams:
-0.3010 <s> ABDULLAH\ </s>
-0.3010 <s> APPLICATION\ </s>
-0.3010 <s> APP\ </s>
-0.3010 <s> AZAM\ </s>
-0.3010 <s> A\ </s>
-0.3010 <s> BABAR\ </s>
-0.3010 <s> BEGIN\ </s>
-0.3010 <s> BELIEVER\ </s>
-0.3010 <s> BYE\ </s>
-0.3010 <s> CAN\ </s>
-0.3010 <s> CLOSE\ </s>
-0.3010 <s> DESPACITO\ </s>
-0.3010 <s> DOWN\ </s>
-0.3010 <s> DO\ </s>
-0.3010 <s> EXIT\ </s>
-0.3010 <s> FAREWELL\ </s>
-0.3010 <s> FIND\ </s>
-0.3010 <s> FORECAST\ </s>
-0.3010 <s> FOR\ </s>
-0.3010 <s> FUNNY\ </s>
-0.3010 <s> GIVE\ </s>
-0.3010 <s> GOODBYE\ </s>
-0.3010 <s> GOOGLE\ </s>
-0.3010 <s> HELLO\ </s>
-0.3010 <s> HI\ </s>
-0.3010 <s> HO\ </s>
-0.3010 <s> IMAGINE\ </s>
-0.3010 <s> INFORMATION\ </s>
-0.3010 <s> INTERNET\ </s>
-0.3010 <s> ISHQ\ </s>
-0.3010 <s> JOKE\ </s>
-0.3010 <s> LATER\ </s>
-0.3010 <s> LAUGH\ </s>
-0.3010 <s> LAUNCH\ </s>
-0.3010 <s> LIKE\ </s>
-0.3010 <s> LOOK\ </s>
-0.3010 <s> MAKE\ </s>
-0.3010 <s> MERE\ </s>
-0.3010 <s> ME\ </s>
-0.3010 <s> MOVIE\ </s>
-0.3010 <s> MURSHID\ </s>
-0.3010 <s> MUSIC\ </s>
-0.3010 <s> NEARBY\ </s>
-0.3010 <s> NEWS\ </s>
-0.3010 <s> NOW\ </s>
-0.3010 <s> ON\ </s>
-0.3010 <s> OPEN\ </s>
-0.3010 <s> PAKISTAN\ </s>
-0.3010 <s> PAS\ </s>
-0.3010 <s> PLAY\ </s>
-0.3010 <s> PLEASE\ </s>
-0.3010 <s> PROVIDE\ </s>
-0.3010 <s> QUIT\ </s>
-0.3010 <s> REPORT\ </s>
-0.3010 <s> RESTAURANTS\ </s>
-0.3010 <s> REVIEWS} </s>
-0.3010 <s> RUN\ </s>
-0.3010 <s> SAY\ </s>
-0.3010 <s> SEARCH\ </s>
-0.3010 <s> SEE\ </s>
-0.3010 <s> SHUT\ </s>
-0.3010 <s> SOMETHING\ </s>
-0.3010 <s> SONG\ </s>
-0.3010 <s> SPORTS\ </s>
-0.3010 <s> START\ </s>
-0.3010 <s> STOP\ </s>
-0.3010 <s> TELL\ </s>
-0.3010 <s> THERE\ </s>
-0.3010 <s> THE\ </s>
-0.3010 <s> THIS\ </s>
-0.3010 <s> THUNDER\ </s>
-0.3010 <s> TRANSLATE\ </s>
-0.3010 <s> TRANSLATION\ </s>
-0.3010 <s> TUM\ </s>
-0.3010 <s> TUNES\ </s>
-0.3010 <s> UPDATES\ </s>
-0.3010 <s> UPDATE\ </s>
-0.3010 <s> UP\ </s>
-0.3010 <s> WEATHER\ </s>
-0.3010 <s> WEB\ </s>
-0.3010 <s> WHAT'S\ </s>
-0.3010 <s> YOU\ </s>
-0.3010 <s> YO\ </s>
-0.3010 <s> \COCOATEXTSCALING0\COCOAPLATFORM0{\FONTTBL\F0\FSWISS\FCHARSET0 HELVETICA;}
-0.3010 <s> \F0\FS24 \CF0
-0.3010 <s> \PAPERW11900\PAPERH16840\MARGL1440\MARGR1440\VIEWW25400\VIEWH16000\VIEWKIND0 </s>
-0.3010 <s> \PARD\TX720\TX1440\TX2160\TX2880\TX3600\TX4320\TX5040\TX5760\TX6480\TX7200\TX7920\TX8640\PARDIRNATURAL\PARTIGHTENFACTOR0 </s>
-0.3010 <s> {\*\EXPANDEDCOLORTBL;;} </s>
-0.3010 <s> {\COLORTBL;\RED255\GREEN255\BLUE255;} </s>
-0.3010 <s> {\RTF1\ANSI\ANSICPG1252\COCOARTF2709 </s>
-0.3010 \CF0 HEY\ </s>
-0.3010 \COCOATEXTSCALING0\COCOAPLATFORM0{\FONTTBL\F0\FSWISS\FCHARSET0 HELVETICA;} </s>
-0.3010 \F0\FS24 \CF0 HEY\

\end\
